digraph Tree {
node [shape=box, style="filled, rounded", color="black", fontname=helvetica] ;
edge [fontname=helvetica] ;
0 [label="alcohol <= 9.975\nentropy = 1.215\nsamples = 1155\nvalue = [610, 53, 492]", fillcolor="#fae9dc"] ;
1 [label="total sulfur dioxide <= 91.5\nentropy = 1.125\nsamples = 495\nvalue = [141, 25, 329]", fillcolor="#bc96f1"] ;
0 -> 1 [labeldistance=2.5, labelangle=45, headlabel="True"] ;
2 [label="sulphates <= 0.575\nentropy = 1.208\nsamples = 407\nvalue = [133, 25, 249]", fillcolor="#caabf4"] ;
1 -> 2 ;
3 [label="total sulfur dioxide <= 49.5\nentropy = 1.103\nsamples = 171\nvalue = [31, 16, 124]", fillcolor="#ab7bee"] ;
2 -> 3 ;
4 [label="entropy = 1.267\nsamples = 107\nvalue = [22, 15, 70]", fillcolor="#b88ff0"] ;
3 -> 4 ;
5 [label="entropy = 0.699\nsamples = 64\nvalue = [9, 1, 54]", fillcolor="#985dea"] ;
3 -> 5 ;
6 [label="fixed acidity <= 10.85\nentropy = 1.188\nsamples = 236\nvalue = [102, 9, 125]", fillcolor="#e9ddfb"] ;
2 -> 6 ;
7 [label="entropy = 1.165\nsamples = 213\nvalue = [82, 8, 123]", fillcolor="#d8c1f7"] ;
6 -> 7 ;
8 [label="entropy = 0.678\nsamples = 23\nvalue = [20, 1, 2]", fillcolor="#e99355"] ;
6 -> 8 ;
9 [label="pH <= 3.525\nentropy = 0.439\nsamples = 88\nvalue = [8, 0, 80]", fillcolor="#8e4de8"] ;
1 -> 9 ;
10 [label="residual sugar <= 11.75\nentropy = 0.404\nsamples = 87\nvalue = [7, 0, 80]", fillcolor="#8c4ae7"] ;
9 -> 10 ;
11 [label="entropy = 0.365\nsamples = 86\nvalue = [6, 0, 80]", fillcolor="#8a48e7"] ;
10 -> 11 ;
12 [label="entropy = 0.0\nsamples = 1\nvalue = [1, 0, 0]", fillcolor="#e58139"] ;
10 -> 12 ;
13 [label="entropy = 0.0\nsamples = 1\nvalue = [1, 0, 0]", fillcolor="#e58139"] ;
9 -> 13 ;
14 [label="sulphates <= 0.635\nentropy = 1.042\nsamples = 660\nvalue = [469, 28, 163]", fillcolor="#efb185"] ;
0 -> 14 [labeldistance=2.5, labelangle=-45, headlabel="False"] ;
15 [label="volatile acidity <= 0.782\nentropy = 1.29\nsamples = 315\nvalue = [179, 26, 110]", fillcolor="#f6d5bc"] ;
14 -> 15 ;
16 [label="alcohol <= 11.45\nentropy = 1.17\nsamples = 274\nvalue = [168, 13, 93]", fillcolor="#f4cbad"] ;
15 -> 16 ;
17 [label="entropy = 1.204\nsamples = 188\nvalue = [99, 8, 81]", fillcolor="#fbeade"] ;
16 -> 17 ;
18 [label="entropy = 0.89\nsamples = 86\nvalue = [69, 5, 12]", fillcolor="#eb9e66"] ;
16 -> 18 ;
19 [label="total sulfur dioxide <= 15.0\nentropy = 1.561\nsamples = 41\nvalue = [11, 13, 17]", fillcolor="#ede3fb"] ;
15 -> 19 ;
20 [label="entropy = 0.997\nsamples = 15\nvalue = [0, 8, 7]", fillcolor="#e6fcef"] ;
19 -> 20 ;
21 [label="entropy = 1.513\nsamples = 26\nvalue = [11, 5, 10]", fillcolor="#fdf7f3"] ;
19 -> 21 ;
22 [label="alcohol <= 11.25\nentropy = 0.669\nsamples = 345\nvalue = [290, 2, 53]", fillcolor="#ea995e"] ;
14 -> 22 ;
23 [label="total sulfur dioxide <= 83.5\nentropy = 0.86\nsamples = 209\nvalue = [158, 2, 49]", fillcolor="#eda978"] ;
22 -> 23 ;
24 [label="entropy = 0.783\nsamples = 194\nvalue = [155, 2, 37]", fillcolor="#eba06a"] ;
23 -> 24 ;
25 [label="entropy = 0.722\nsamples = 15\nvalue = [3, 0, 12]", fillcolor="#a06aec"] ;
23 -> 25 ;
26 [label="fixed acidity <= 13.4\nentropy = 0.191\nsamples = 136\nvalue = [132, 0, 4]", fillcolor="#e6853f"] ;
22 -> 26 ;
27 [label="entropy = 0.113\nsamples = 133\nvalue = [131, 0, 2]", fillcolor="#e5833c"] ;
26 -> 27 ;
28 [label="entropy = 0.918\nsamples = 3\nvalue = [1, 0, 2]", fillcolor="#c09cf2"] ;
26 -> 28 ;
}