digraph Tree {
node [shape=box, style="filled, rounded", color="black", fontname=helvetica] ;
edge [fontname=helvetica] ;
0 [label="alcohol <= 10.25\nentropy = 1.221\nsamples = 979\nvalue = [520, 47, 412]", fillcolor="#fae7d9"] ;
1 [label="total sulfur dioxide <= 95.5\nentropy = 1.187\nsamples = 522\nvalue = [178, 27, 317]", fillcolor="#ccaff4"] ;
0 -> 1 [labeldistance=2.5, labelangle=45, headlabel="True"] ;
2 [label="sulphates <= 0.575\nentropy = 1.24\nsamples = 450\nvalue = [175, 26, 249]", fillcolor="#ddcaf8"] ;
1 -> 2 ;
3 [label="total sulfur dioxide <= 64.0\nentropy = 1.217\nsamples = 178\nvalue = [40, 19, 119]", fillcolor="#b78ef0"] ;
2 -> 3 ;
4 [label="entropy = 1.306\nsamples = 128\nvalue = [28, 19, 81]", fillcolor="#bc96f1"] ;
3 -> 4 ;
5 [label="entropy = 0.795\nsamples = 50\nvalue = [12, 0, 38]", fillcolor="#a978ed"] ;
3 -> 5 ;
6 [label="volatile acidity <= 0.317\nentropy = 1.147\nsamples = 272\nvalue = [135, 7, 130]", fillcolor="#fefbf8"] ;
2 -> 6 ;
7 [label="entropy = 0.503\nsamples = 27\nvalue = [24, 0, 3]", fillcolor="#e89152"] ;
6 -> 7 ;
8 [label="entropy = 1.155\nsamples = 245\nvalue = [111, 7, 127]", fillcolor="#f0e7fc"] ;
6 -> 8 ;
9 [label="alcohol <= 9.15\nentropy = 0.355\nsamples = 72\nvalue = [3, 1, 68]", fillcolor="#8844e7"] ;
1 -> 9 ;
10 [label="free sulfur dioxide <= 29.0\nentropy = 1.0\nsamples = 2\nvalue = [0, 1, 1]", fillcolor="#ffffff"] ;
9 -> 10 ;
11 [label="entropy = 0.0\nsamples = 1\nvalue = [0, 1, 0]", fillcolor="#39e581"] ;
10 -> 11 ;
12 [label="entropy = 0.0\nsamples = 1\nvalue = [0, 0, 1]", fillcolor="#8139e5"] ;
10 -> 12 ;
13 [label="total sulfur dioxide <= 109.5\nentropy = 0.255\nsamples = 70\nvalue = [3, 0, 67]", fillcolor="#8742e6"] ;
9 -> 13 ;
14 [label="entropy = 0.529\nsamples = 25\nvalue = [3, 0, 22]", fillcolor="#9254e9"] ;
13 -> 14 ;
15 [label="entropy = 0.0\nsamples = 45\nvalue = [0, 0, 45]", fillcolor="#8139e5"] ;
13 -> 15 ;
16 [label="sulphates <= 0.645\nentropy = 0.982\nsamples = 457\nvalue = [342, 20, 95]", fillcolor="#eda978"] ;
0 -> 16 [labeldistance=2.5, labelangle=-45, headlabel="False"] ;
17 [label="volatile acidity <= 0.913\nentropy = 1.254\nsamples = 216\nvalue = [134, 19, 63]", fillcolor="#f3c5a3"] ;
16 -> 17 ;
18 [label="alcohol <= 11.45\nentropy = 1.165\nsamples = 204\nvalue = [134, 13, 57]", fillcolor="#f1bd97"] ;
17 -> 18 ;
19 [label="entropy = 1.293\nsamples = 127\nvalue = [70, 10, 47]", fillcolor="#f8dbc6"] ;
18 -> 19 ;
20 [label="entropy = 0.787\nsamples = 77\nvalue = [64, 3, 10]", fillcolor="#ea995f"] ;
18 -> 20 ;
21 [label="density <= 0.996\nentropy = 1.0\nsamples = 12\nvalue = [0, 6, 6]", fillcolor="#ffffff"] ;
17 -> 21 ;
22 [label="entropy = 0.811\nsamples = 8\nvalue = [0, 2, 6]", fillcolor="#ab7bee"] ;
21 -> 22 ;
23 [label="entropy = 0.0\nsamples = 4\nvalue = [0, 4, 0]", fillcolor="#39e581"] ;
21 -> 23 ;
24 [label="total sulfur dioxide <= 105.5\nentropy = 0.603\nsamples = 241\nvalue = [208, 1, 32]", fillcolor="#e99558"] ;
16 -> 24 ;
25 [label="alcohol <= 11.25\nentropy = 0.541\nsamples = 235\nvalue = [208, 1, 26]", fillcolor="#e89153"] ;
24 -> 25 ;
26 [label="entropy = 0.758\nsamples = 119\nvalue = [96, 1, 22]", fillcolor="#eb9f68"] ;
25 -> 26 ;
27 [label="entropy = 0.216\nsamples = 116\nvalue = [112, 0, 4]", fillcolor="#e68640"] ;
25 -> 27 ;
28 [label="entropy = 0.0\nsamples = 6\nvalue = [0, 0, 6]", fillcolor="#8139e5"] ;
24 -> 28 ;
}